{"levels":[{"input":[0.08721500494169576,0,0,0,0,0.32886698854913865],"output":[0,1,1,1,1,0,1,0,0,0,0,0],"biases":[-0.4397526048397562,0.27808681129999474,0.3281291764110316,0.5083257739585899,0.18704621253241216,-0.0422973438682418,-0.03929246576850137,-0.14998539864960336,-0.16404761454946465,-0.15908499813467333,-0.15707864625256512,-0.30925630846647467],"weight":[[0.03340827577368781,0.26974615958685116,0.47641180904187513,0.11515087720273348,0.24582040568689362,-0.08523213005993067,-0.24595461683882636,-0.0938832640888527,0.013585300446771809,-0.21791669715352108,0.2647222817119566,0.03223415828007898],[0.0018458044466990852,-0.33770219915842287,-0.24784066010689113,-0.11281855650099834,0.03567342486667752,-0.33403882967527543,-0.1572874258792908,-0.2585878020864511,-0.1371831600503459,0.48808679931949805,0.37080383638204456,0.38458818263134237],[0.3792723932215947,0.08821224109616896,-0.12424670293081176,-0.23138633551091511,0.04793347435223056,-0.3971020648157732,0.2542524111557326,-0.3541420970622112,-0.31068914327958663,-0.003044436653491467,-0.30761313529904943,0.3886132003507725],[0.34837941119030214,0.12776063173785163,-0.15484723452203847,-0.261798849610962,0.048329968377212616,0.08124926853201463,-0.2591762536208809,-0.24580619997484388,0.16639478825101195,-0.11247430896913475,-0.4529172370667429,0.31112283188489176],[0.011599116615051752,-0.485946442948456,-0.2508862707577473,0.2888229265290585,0.2836029049622525,-0.2179577668500125,-0.22576747758091315,0.11129428523215704,0.10606384894348472,-0.14356063239794098,-0.05625745714728939,-0.23654418499272153],[0.25997802822352606,0.28022293211621646,-0.019111777544637932,0.18643882514852148,0.14759289897279043,-0.00920927919327042,0.24414930625526815,-0.16360127509221858,0.48300856576046236,-0.31285820224976435,0.25163105131724595,-0.18243568269542715]]},{"input":[0,1,1,1,1,0,1,0,0,0,0,0],"output":[1,0,1,0],"biases":[0.06946287677793239,-0.01694204355892818,-0.028883474098997906,-0.20823390913795325],"weight":[[-0.1489186130338062,-0.12227019292542955,0.40167554520805326,-0.1251276048721978],[-0.32864929177053853,0.27468529467489655,0.08043366832726208,0.0764114186076649],[-0.30884002747229095,-0.2604041771213118,-0.27533819514965985,-0.5947136977694574],[0.10054958058573965,0.05246727614285962,0.1439830738036572,0.23259298210138604],[-0.07266795488369687,-0.0626411249622397,0.24805611135753355,-0.5015464308912342],[-0.0808829781588104,-0.43824510481278256,0.28313875145597484,0.024413150929745275],[-0.370921716651083,-0.050813065163009624,-0.08532878786225412,0.25085894434361355],[-0.3910854850039974,-0.15135273119831189,-0.42330253495850684,0.0775168925484967],[0.2811722217527718,0.4174873639745593,-0.2558989237555096,-0.2270584625334528],[-0.23312981456177229,-0.09948690460360049,0.3364057467335362,-0.1742283181206591],[0.23049662725514986,0.19993257824559865,0.2307620488910263,-0.013496963089359534],[-0.15180006621155295,-0.24993474484293116,0.08703576292647075,0.28888120329044636]]}]}